{
  "NumberOfInput": 2,
  "Momentum": 0.005,
  "LearnRate": 0.005,
  "LayersOfNeurons": [
    {
      "NeuronList": [
        {
          "Weight": [
            -8.327682140588577,
            -7.469936873247137
          ],
          "WeightDelta": [
            -0.0,
            -0.0001624645674789167
          ],
          "Bias": 8.883838773791558,
          "BiasDelta": -0.0001624645674789167,
          "Type": 6
        },
        {
          "Weight": [
            0.03880430897059683,
            1.4030874137282892
          ],
          "WeightDelta": [
            0.0,
            2.366846962783781E-05
          ],
          "Bias": 2.4619946294996304,
          "BiasDelta": 2.366846962783781E-05,
          "Type": 6
        },
        {
          "Weight": [
            -4.570630535037019,
            -7.402955531698671
          ],
          "WeightDelta": [
            -0.0,
            -4.7809847266460756E-05
          ],
          "Bias": 8.776890441662584,
          "BiasDelta": -4.7809847266460756E-05,
          "Type": 6
        },
        {
          "Weight": [
            -5.321753857160418,
            -7.202250791232876
          ],
          "WeightDelta": [
            -0.0,
            -0.00011260851533392659
          ],
          "Bias": 7.704551212987206,
          "BiasDelta": -0.00011260851533392659,
          "Type": 6
        },
        {
          "Weight": [
            -0.1426438091272358,
            0.13537356214944724
          ],
          "WeightDelta": [
            -0.0,
            -3.942873795937287E-05
          ],
          "Bias": 1.6238297139765074,
          "BiasDelta": -3.942873795937287E-05,
          "Type": 6
        }
      ]
    },
    {
      "NeuronList": [
        {
          "Weight": [
            4.725798416284906,
            -0.15106965135145647,
            4.911552245149897,
            4.168560124500826,
            1.3936263031934049
          ],
          "WeightDelta": [
            -1.5637746351849274E-05,
            -1.7586913830943304E-05,
            -1.5483182448203857E-05,
            -8.169282684232514E-06,
            -1.6588880538527612E-05
          ],
          "Bias": 1.693040721003443,
          "BiasDelta": -1.760237648458563E-05,
          "Type": 6
        },
        {
          "Weight": [
            -2.9596851061691285,
            1.362655619126268,
            1.6453372959471877,
            -2.512147536563763,
            -0.2469026394030808
          ],
          "WeightDelta": [
            1.997916559926265E-05,
            2.2469469442879583E-05,
            1.978169099153344E-05,
            1.0437274521732405E-05,
            2.1194357801207998E-05
          ],
          "Bias": 2.0141383652912057,
          "BiasDelta": 2.2489224905768743E-05,
          "Type": 6
        },
        {
          "Weight": [
            2.8065170955879992,
            0.8257397471301293,
            1.5423936399884863,
            2.516859580854749,
            0.11643437406594837
          ],
          "WeightDelta": [
            -5.054687871100532E-06,
            -5.684729629909023E-06,
            -5.00472720084231E-06,
            -2.6406090219450624E-06,
            -5.362129002899138E-06
          ],
          "Bias": 1.3745757804230292,
          "BiasDelta": -5.689727721453822E-06,
          "Type": 6
        },
        {
          "Weight": [
            0.37913877678595204,
            0.755605515728174,
            0.8730380539567957,
            -0.29496410771051773,
            1.2583749093001737
          ],
          "WeightDelta": [
            -5.713044737485136E-06,
            -6.42514741253578E-06,
            -5.656576850331934E-06,
            -2.9845398689859025E-06,
            -6.06052908961509E-06
          ],
          "Bias": 1.0309616409277595,
          "BiasDelta": -6.430796489457173E-06,
          "Type": 6
        },
        {
          "Weight": [
            -1.9720362267199916,
            0.25029171169168735,
            1.4199843396058152,
            -1.8682972612357946,
            -0.6349998792011264
          ],
          "WeightDelta": [
            6.297762984958036E-06,
            7.08274788784148E-06,
            6.235515726990865E-06,
            3.2900013176344966E-06,
            6.680811637865918E-06
          ],
          "Bias": 1.439823308137428,
          "BiasDelta": 7.088975136037404E-06,
          "Type": 6
        }
      ]
    },
    {
      "NeuronList": [
        {
          "Weight": [
            1.6350844406783709,
            -1.7891811159869704,
            0.6693159373329358,
            0.24772374863574448,
            -1.5261161793074622
          ],
          "WeightDelta": [
            -9.879019173885876E-06,
            -6.531303317848602E-06,
            -9.879010638172333E-06,
            -9.871544594098481E-06,
            2.6828655220834732E-06
          ],
          "Bias": 1.2450119061813654,
          "BiasDelta": -9.879019173940311E-06,
          "Type": 6
        },
        {
          "Weight": [
            -0.5699461157539437,
            0.9915632489882381,
            -0.8849237949418708,
            0.8463312646375295,
            1.0481963484296446
          ],
          "WeightDelta": [
            1.434236445372291E-07,
            9.482149077108009E-08,
            1.434235206157017E-07,
            1.433151285544556E-07,
            -3.894985364515021E-08
          ],
          "Bias": 1.033534127225176,
          "BiasDelta": 1.4342364453801937E-07,
          "Type": 6
        },
        {
          "Weight": [
            0.8110370740188289,
            -1.4687858216860576,
            0.5128794961912819,
            0.32542498684062554,
            -0.47047811335497075
          ],
          "WeightDelta": [
            -6.113664288923671E-06,
            -4.041919056095251E-06,
            -6.113659006568596E-06,
            -6.109038620047382E-06,
            1.660300364402934E-06
          ],
          "Bias": 0.835575390430037,
          "BiasDelta": -6.113664288957359E-06,
          "Type": 6
        },
        {
          "Weight": [
            0.20583459051623323,
            1.0108870888260806,
            0.9111485984010516,
            -0.9590379198591705,
            0.011366342966559648
          ],
          "WeightDelta": [
            1.3716312253115766E-06,
            9.068247986017861E-07,
            1.3716300401887397E-06,
            1.3705934333150214E-06,
            -3.724967082895195E-07
          ],
          "Bias": 1.066226603185058,
          "BiasDelta": 1.3716312253191345E-06,
          "Type": 6
        },
        {
          "Weight": [
            0.7635262114386885,
            -0.13791172264337095,
            0.9826125928612851,
            -0.5138872402286688,
            0.49578581811144756
          ],
          "WeightDelta": [
            2.5356541183914587E-06,
            1.6763937659058461E-06,
            2.5356519275244484E-06,
            2.533735613255721E-06,
            -6.88612795503417E-07
          ],
          "Bias": 1.203467316473643,
          "BiasDelta": 2.5356541184054306E-06,
          "Type": 6
        }
      ]
    },
    {
      "NeuronList": [
        {
          "Weight": [
            -0.8103154120845157,
            0.20350611726218817,
            -0.0330922949432612,
            -0.3597781590384352,
            -0.2758459761319494
          ],
          "WeightDelta": [
            1.015471259880486E-06,
            6.747544747180207E-07,
            9.464427560911907E-07,
            9.747186835825722E-07,
            9.959867911388276E-07
          ],
          "Bias": 0.8932816357760893,
          "BiasDelta": 1.0202370865701602E-06,
          "Type": 6
        },
        {
          "Weight": [
            -0.5286760596548407,
            0.35322285549446875,
            -0.2190468546367423,
            0.18059662909937785,
            -0.4271478764458742
          ],
          "WeightDelta": [
            9.036345923394852E-07,
            6.004418921347152E-07,
            8.422083892101266E-07,
            8.673702103479326E-07,
            8.862960022050957E-07
          ],
          "Bias": 0.9200108276825281,
          "BiasDelta": 9.078755453117941E-07,
          "Type": 6
        },
        {
          "Weight": [
            -1.3335497473899856,
            -0.4871576167495517,
            -0.759027736881958,
            0.5404075586431358,
            0.9034028784024674
          ],
          "WeightDelta": [
            5.171617423628737E-06,
            3.4364064607144773E-06,
            4.820067333510227E-06,
            4.964071684062602E-06,
            5.072386434022621E-06
          ],
          "Bias": 1.3281651910507803,
          "BiasDelta": 5.195888944960828E-06,
          "Type": 6
        },
        {
          "Weight": [
            -0.6887034432433194,
            -0.34041498041126533,
            -0.2040570307479847,
            -0.4419161464682256,
            -0.21862831282042075
          ],
          "WeightDelta": [
            1.4922196242575568E-06,
            9.915414729200049E-07,
            1.3907832842476521E-06,
            1.432334331100213E-06,
            1.4635874927800422E-06
          ],
          "Bias": 1.1380770815099304,
          "BiasDelta": 1.4992229343393995E-06,
          "Type": 6
        },
        {
          "Weight": [
            -0.6362266644178364,
            1.2251084565815733,
            -1.0349371886585965,
            -0.2009568362586408,
            -0.428906272110619
          ],
          "WeightDelta": [
            2.1860820145170775E-06,
            1.4525951444155976E-06,
            2.0374791179264223E-06,
            2.098350852041254E-06,
            2.144136320570434E-06
          ],
          "Bias": 1.139287866046843,
          "BiasDelta": 2.19634177116625E-06,
          "Type": 6
        }
      ]
    },
    {
      "NeuronList": [
        {
          "Weight": [
            0.41682235553102986,
            0.13251242843155828,
            1.1652956895242645,
            1.023685551472761,
            0.940213442650336
          ],
          "WeightDelta": [
            -7.9603763444228E-07,
            3.5486940504695073E-07,
            7.111207522288209E-07,
            -1.0680725393588821E-06,
            -4.971689047528535E-07
          ],
          "Bias": 0.8578299827165178,
          "BiasDelta": 1.9954333469512807E-06,
          "Type": 6
        },
        {
          "Weight": [
            -1.0563319091611065,
            0.11858937892819152,
            -0.7411907263750932,
            -0.6286370921240895,
            -1.0622339178490838
          ],
          "WeightDelta": [
            7.063168946005322E-07,
            -3.1487236949181595E-07,
            -6.309709235696632E-07,
            9.476909715915837E-07,
            4.411334109134327E-07
          ],
          "Bias": 1.3023300296097193,
          "BiasDelta": -1.7705297136968088E-06,
          "Type": 6
        },
        {
          "Weight": [
            0.9284089537718261,
            0.36790609440082384,
            0.9767729019992771,
            0.21705951605844956,
            1.4066676391205288
          ],
          "WeightDelta": [
            -2.955127727295443E-07,
            1.317380451689085E-07,
            2.639891082334193E-07,
            -3.9650019537501473E-07,
            -1.845638386950906E-07
          ],
          "Bias": 0.5912386515432028,
          "BiasDelta": 7.40764023760895E-07,
          "Type": 6
        },
        {
          "Weight": [
            -0.320442471976161,
            0.27881915963260323,
            1.469569136210483,
            1.2766619769603875,
            0.1614564497704409
          ],
          "WeightDelta": [
            -8.545071531111002E-07,
            3.80934810004749E-07,
            7.633530667567133E-07,
            -1.1465232112589009E-06,
            -5.336863070718661E-07
          ],
          "Bias": 0.8052836921653335,
          "BiasDelta": 2.1419993160510922E-06,
          "Type": 6
        },
        {
          "Weight": [
            -0.6278614545711414,
            -0.612606088484014,
            -0.1926503059133375,
            -0.0768791622484481,
            -0.6791324137189612
          ],
          "WeightDelta": [
            4.0283253769252297E-07,
            -1.7958063387876719E-07,
            -3.598605955695213E-07,
            5.404950128659187E-07,
            2.51590883267374E-07
          ],
          "Bias": 0.9181429708229998,
          "BiasDelta": -1.009783261707024E-06,
          "Type": 6
        }
      ]
    },
    {
      "NeuronList": [
        {
          "Weight": [
            1.5739611608515196,
            -1.0103299807456383,
            0.6661289452954534,
            1.3938768819079128,
            -0.6058935154371398
          ],
          "WeightDelta": [
            6.388882430253897E-07,
            1.8499600564314117E-06,
            3.1713557692419504E-07,
            1.2487387059971866E-06,
            1.5917493740721715E-06
          ],
          "Bias": -0.06569464811429854,
          "BiasDelta": 1.908405072795049E-06,
          "Type": 6
        }
      ]
    }
  ]
}