{
  "NumberOfInput": 2,
  "Momentum": 0.005,
  "LearnRate": 0.005,
  "LayersOfNeurons": [
    {
      "NeuronList": [
        {
          "Weight": [
            -8.484029437043894,
            -7.550515935083307
          ],
          "WeightDelta": [
            -0.0,
            -0.0004348809407902362
          ],
          "Bias": 8.381711108761023,
          "BiasDelta": -0.0004348809407902362,
          "Type": 6
        },
        {
          "Weight": [
            0.12412580551730484,
            1.4160724220420726
          ],
          "WeightDelta": [
            0.0,
            9.341544592695705E-05
          ],
          "Bias": 2.5640785007881317,
          "BiasDelta": 9.341544592695705E-05,
          "Type": 6
        },
        {
          "Weight": [
            -4.586458475052995,
            -7.412134381492886
          ],
          "WeightDelta": [
            -0.0,
            -4.641635749728214E-05
          ],
          "Bias": 8.559210065889719,
          "BiasDelta": -4.641635749728214E-05,
          "Type": 6
        },
        {
          "Weight": [
            -5.71769755892993,
            -7.250664124121165
          ],
          "WeightDelta": [
            -0.0,
            -0.00017929660842376519
          ],
          "Bias": 7.036822951277041,
          "BiasDelta": -0.00017929660842376519,
          "Type": 6
        },
        {
          "Weight": [
            -0.22879702750380942,
            0.12067434873476116
          ],
          "WeightDelta": [
            -0.0,
            -9.866319076056067E-05
          ],
          "Bias": 1.4424123998991791,
          "BiasDelta": -9.866319076056067E-05,
          "Type": 6
        }
      ]
    },
    {
      "NeuronList": [
        {
          "Weight": [
            4.702009619557715,
            -0.2334366975798136,
            4.829855243939069,
            4.099978364098653,
            1.321607332650582
          ],
          "WeightDelta": [
            -2.8852945657896598E-05,
            -4.2302650248551255E-05,
            -3.4577540406889056E-05,
            8.902317002286346E-06,
            -3.877422140526558E-05
          ],
          "Bias": 1.6098652422029762,
          "BiasDelta": -4.2332202900188235E-05,
          "Type": 6
        },
        {
          "Weight": [
            -2.961958235810889,
            1.4521972014031213,
            1.733282781297483,
            -2.443983116567547,
            -0.17078428231700013
          ],
          "WeightDelta": [
            4.542779912184203E-05,
            6.660381649063218E-05,
            5.444094264606339E-05,
            -1.40163390349762E-05,
            6.104844760008611E-05
          ],
          "Bias": 2.1043563450844234,
          "BiasDelta": 6.665034594859465E-05,
          "Type": 6
        },
        {
          "Weight": [
            2.7957136877058755,
            0.7901322080379517,
            1.5074675630881194,
            2.488188807908364,
            0.08507300444031744
          ],
          "WeightDelta": [
            -1.0224173704409994E-05,
            -1.4990138248838367E-05,
            -1.2252710124747156E-05,
            3.1545768838402E-06,
            -1.373982329572612E-05
          ],
          "Bias": 1.3386442555831761,
          "BiasDelta": -1.5000610366567522E-05,
          "Type": 6
        },
        {
          "Weight": [
            0.3747467066902741,
            0.7378294321668987,
            0.8549878695105484,
            -0.3106869237165053,
            1.2431137862400687
          ],
          "WeightDelta": [
            -7.899736264888595E-06,
            -1.1582172033028426E-05,
            -9.46709057514183E-06,
            2.437392607962323E-06,
            -1.061611270508753E-05
          ],
          "Bias": 1.0129860316497956,
          "BiasDelta": -1.159026334393402E-05,
          "Type": 6
        },
        {
          "Weight": [
            -1.9699652500269642,
            0.3160007790531645,
            1.4850583150179992,
            -1.815063082213194,
            -0.5786664439427679
          ],
          "WeightDelta": [
            3.117730128450428E-05,
            4.571049651463004E-05,
            3.736306191141561E-05,
            -9.619476035525173E-06,
            4.189782205108024E-05
          ],
          "Bias": 1.5060862484517297,
          "BiasDelta": 4.574242988929364E-05,
          "Type": 6
        }
      ]
    },
    {
      "NeuronList": [
        {
          "Weight": [
            1.5925874670815943,
            -1.807142800447925,
            0.6268198536696641,
            0.20534721360940114,
            -1.5459288606410837
          ],
          "WeightDelta": [
            -2.292646294071263E-05,
            -2.2865373046550372E-05,
            -2.2923478954607376E-05,
            -2.290798573023566E-05,
            -2.092580228483366E-05
          ],
          "Bias": 1.202550880194603,
          "BiasDelta": -2.292646383742316E-05,
          "Type": 6
        },
        {
          "Weight": [
            -0.5603579473702911,
            1.0000943382746958,
            -0.8753357700510546,
            0.8558840427385676,
            1.051371567225173
          ],
          "WeightDelta": [
            4.089134512969433E-06,
            4.078238597831605E-06,
            4.088602293036477E-06,
            4.0858389414170236E-06,
            3.7322992454512563E-06
          ],
          "Bias": 1.0431036895852472,
          "BiasDelta": 4.089134672905572E-06,
          "Type": 6
        },
        {
          "Weight": [
            0.782469962943849,
            -1.485344855804452,
            0.4843130033010302,
            0.29694177261560145,
            -0.4861534695595247
          ],
          "WeightDelta": [
            -1.6028450866179907E-05,
            -1.5985741427330487E-05,
            -1.6026364688525854E-05,
            -1.6015532996509387E-05,
            -1.4629740079191912E-05
          ],
          "Bias": 0.8070337350779954,
          "BiasDelta": -1.6028451493092167E-05,
          "Type": 6
        },
        {
          "Weight": [
            0.2090937020424922,
            1.012878540401359,
            0.9144075959603383,
            -0.9557913487961289,
            0.015116638834321645
          ],
          "WeightDelta": [
            3.4214769087225655E-06,
            3.4123600352313083E-06,
            3.421031587541471E-06,
            3.418719424973413E-06,
            3.122904283107301E-06
          ],
          "Bias": 1.0694819566181923,
          "BiasDelta": 3.421477042544969E-06,
          "Type": 6
        },
        {
          "Weight": [
            0.7731648929188961,
            -0.13687493104126722,
            0.9922510457186411,
            -0.5042830904209877,
            0.5001152480407207
          ],
          "WeightDelta": [
            6.46349819234052E-06,
            6.446275543495422E-06,
            6.462656937898125E-06,
            6.4582890409408365E-06,
            5.899465852672578E-06
          ],
          "Bias": 1.2130914483279054,
          "BiasDelta": 6.463498445143881E-06,
          "Type": 6
        }
      ]
    },
    {
      "NeuronList": [
        {
          "Weight": [
            -0.8079371836630568,
            0.20670668852623292,
            -0.030871360130374018,
            -0.35601647501469463,
            -0.27138355817182613
          ],
          "WeightDelta": [
            1.103003144857564E-06,
            2.7715325099736946E-06,
            1.1773644563591913E-06,
            2.755288614638052E-06,
            2.7947542039521484E-06
          ],
          "Bias": 0.8977501453944449,
          "BiasDelta": 2.815733578768529E-06,
          "Type": 6
        },
        {
          "Weight": [
            -0.5270917449177803,
            0.3564311504348111,
            -0.21759693399783833,
            0.18365352121887746,
            -0.4236895191888408
          ],
          "WeightDelta": [
            1.0016100591632298E-06,
            2.516760586068904E-06,
            1.0691357393572046E-06,
            2.502009903766656E-06,
            2.537847635900147E-06
          ],
          "Bias": 0.9234589347040528,
          "BiasDelta": 2.5568984907857483E-06,
          "Type": 6
        },
        {
          "Weight": [
            -1.3200663077294603,
            -0.47665805736064476,
            -0.7461501090557594,
            0.5588409566177971,
            0.9278988391013578
          ],
          "WeightDelta": [
            5.882020686430915E-06,
            1.4779841410956494E-05,
            6.278569666877555E-06,
            1.469321706284114E-05,
            1.4903676492471942E-05
          ],
          "Bias": 1.352756253562075,
          "BiasDelta": 1.5015553885780985E-05,
          "Type": 6
        },
        {
          "Weight": [
            -0.6812621344787352,
            -0.33977910928365007,
            -0.1967432516468999,
            -0.43424119438944814,
            -0.20736250638207868
          ],
          "WeightDelta": [
            2.1258279322350556E-06,
            5.3415996611328336E-06,
            2.269145160118576E-06,
            5.310292654807596E-06,
            5.386355041861676E-06
          ],
          "Bias": 1.1493944202317958,
          "BiasDelta": 5.426788780598886E-06,
          "Type": 6
        },
        {
          "Weight": [
            -0.6275352084827528,
            1.2405938614828962,
            -1.0267705893869716,
            -0.1857351888880469,
            -0.41312725000348677
          ],
          "WeightDelta": [
            3.7697242210954023E-06,
            9.47224246921831E-06,
            4.023868226384076E-06,
            9.416725849907473E-06,
            9.551607050047991E-06
          ],
          "Bias": 1.1551193346587596,
          "BiasDelta": 9.623308076248568E-06,
          "Type": 6
        }
      ]
    },
    {
      "NeuronList": [
        {
          "Weight": [
            0.4165092259817934,
            0.13560790715260765,
            1.1733096367308904,
            1.0232078781291736,
            0.9451518062005477
          ],
          "WeightDelta": [
            8.17652919532804E-07,
            3.352433021048581E-06,
            4.862850455696149E-06,
            -8.744078402251646E-07,
            4.299624240728049E-06
          ],
          "Bias": 0.8675279856824442,
          "BiasDelta": 5.349151649587394E-06,
          "Type": 6
        },
        {
          "Weight": [
            -1.0563645590545903,
            0.11831464223486615,
            -0.743740322708533,
            -0.6296028311876873,
            -1.0643678123903055
          ],
          "WeightDelta": [
            -2.2270635514438344E-07,
            -9.13111322845891E-07,
            -1.3245078378966692E-06,
            2.3816484764402045E-07,
            -1.1711003780064948E-06
          ],
          "Bias": 1.2996711701384622,
          "BiasDelta": -1.4569630200487293E-06,
          "Type": 6
        },
        {
          "Weight": [
            0.9284885892706491,
            0.36989174448243695,
            0.979735176243592,
            0.21616566715657393,
            1.4094588514968684
          ],
          "WeightDelta": [
            3.48274600848364E-07,
            1.427949738066981E-06,
            2.071303435705417E-06,
            -3.724490358416453E-07,
            1.8314004395570853E-06
          ],
          "Bias": 0.5950945101324976,
          "BiasDelta": 2.278440657561519E-06,
          "Type": 6
        },
        {
          "Weight": [
            -0.3201246403334382,
            0.2811264612054056,
            1.4761892510283194,
            1.2773216379769416,
            0.1665240323799202
          ],
          "WeightDelta": [
            7.200291482652454E-07,
            2.952168866639814E-06,
            4.282249825215335E-06,
            -7.700078081950988E-07,
            3.7862700737141003E-06
          ],
          "Bias": 0.81245091197942,
          "BiasDelta": 4.710489028027644E-06,
          "Type": 6
        },
        {
          "Weight": [
            -0.6278914816895248,
            -0.6126772923268404,
            -0.19406831420342102,
            -0.0775256293975827,
            -0.680284098308211
          ],
          "WeightDelta": [
            -1.2481173649144347E-07,
            -5.117366755901888E-07,
            -7.422963890600935E-07,
            1.334751681711043E-07,
            -6.563219612211535E-07
          ],
          "Bias": 0.916729295603405,
          "BiasDelta": -8.165284929485127E-07,
          "Type": 6
        }
      ]
    },
    {
      "NeuronList": [
        {
          "Weight": [
            1.5816053076992636,
            -1.0104645710476576,
            0.6727782041194972,
            1.3995125282819325,
            -0.6067148361213327
          ],
          "WeightDelta": [
            3.6225773024894985E-06,
            -7.792298273540553E-07,
            3.6374225678967236E-06,
            3.5695861267165585E-06,
            -9.769792262134374E-07
          ],
          "Bias": -0.06023193069936516,
          "BiasDelta": 3.657124636109313E-06,
          "Type": 6
        }
      ]
    }
  ]
}