{
  "NumberOfInput": 2,
  "Momentum": 0.005,
  "LearnRate": 0.005,
  "LayersOfNeurons": [
    {
      "NeuronList": [
        {
          "Weight": [
            -91.85879408932499,
            -91.87610749323
          ],
          "WeightDelta": [
            -0.0,
            -0.0012708402098217959
          ],
          "Bias": 92.72599991851908,
          "BiasDelta": -0.0012708402098217959,
          "Type": 6
        },
        {
          "Weight": [
            2.387885626767846,
            3.684258012028444
          ],
          "WeightDelta": [
            0.0,
            0.00010117613747138503
          ],
          "Bias": 40.397697119345764,
          "BiasDelta": 0.00010117613747138503,
          "Type": 6
        },
        {
          "Weight": [
            -17.5130659066019,
            -20.222637311014907
          ],
          "WeightDelta": [
            0.0,
            3.698389889480761E-05
          ],
          "Bias": 72.93990036401924,
          "BiasDelta": 3.698389889480761E-05,
          "Type": 6
        },
        {
          "Weight": [
            -81.15334378792929,
            -81.17179326044109
          ],
          "WeightDelta": [
            -0.0,
            -0.0011443851321145092
          ],
          "Bias": 82.08145213705087,
          "BiasDelta": -0.0011443851321145092,
          "Type": 6
        },
        {
          "Weight": [
            -20.7726421587105,
            -20.385219980121313
          ],
          "WeightDelta": [
            -0.0,
            -0.0001748714031879654
          ],
          "Bias": 40.67006913021404,
          "BiasDelta": -0.0001748714031879654,
          "Type": 6
        }
      ]
    },
    {
      "NeuronList": [
        {
          "Weight": [
            11.95037927359942,
            4.362690647832833,
            9.4369542421568,
            11.168569286518597,
            5.888564766158099
          ],
          "WeightDelta": [
            -2.428272932538523E-05,
            -3.507328554608111E-05,
            -3.507328554608111E-05,
            -2.5325323518782817E-05,
            -3.507328554608111E-05
          ],
          "Bias": 6.20670347808562,
          "BiasDelta": -3.507328554608111E-05,
          "Type": 6
        },
        {
          "Weight": [
            -6.337293087688646,
            2.957540409018034,
            3.225003147066983,
            -5.466437194120251,
            1.3142017549828904
          ],
          "WeightDelta": [
            6.598749587016072E-05,
            9.531046753898117E-05,
            9.531046753898117E-05,
            6.882071033749637E-05,
            9.531046753898117E-05
          ],
          "Bias": 3.61035724570394,
          "BiasDelta": 9.531046753898117E-05,
          "Type": 6
        },
        {
          "Weight": [
            7.5986538806093185,
            5.197086358311899,
            5.919639038366607,
            7.284976755488488,
            4.473688194891531
          ],
          "WeightDelta": [
            -8.144021679188132E-07,
            -1.17629939377957E-06,
            -1.17629939377957E-06,
            -8.493690351100938E-07,
            -1.17629939377957E-06
          ],
          "Bias": 5.74848178170238,
          "BiasDelta": -1.17629939377957E-06,
          "Type": 6
        },
        {
          "Weight": [
            5.03250121500406,
            3.3699637222011924,
            3.4908481585822937,
            4.190117493483871,
            3.866311274791345
          ],
          "WeightDelta": [
            -2.635550535411878E-05,
            -3.806714445521304E-05,
            -3.806714445521304E-05,
            -2.748709548462102E-05,
            -3.806714445521304E-05
          ],
          "Bias": 3.6450505016340857,
          "BiasDelta": -3.806714445521304E-05,
          "Type": 6
        },
        {
          "Weight": [
            -4.2596012523038675,
            1.4999572705034159,
            2.661435804289588,
            -3.857977220963739,
            0.5917770524347228
          ],
          "WeightDelta": [
            5.289292415316818E-05,
            7.63970395309691E-05,
            7.63970395309691E-05,
            5.516391498187467E-05,
            7.63970395309691E-05
          ],
          "Bias": 2.6898147831260824,
          "BiasDelta": 7.63970395309691E-05,
          "Type": 6
        }
      ]
    },
    {
      "NeuronList": [
        {
          "Weight": [
            2.1245801804976288,
            -3.0482003656349685,
            1.1582811696135598,
            0.7341477645348495,
            -2.795571015553613
          ],
          "WeightDelta": [
            -2.1237792917298653E-05,
            -2.1072291985428424E-05,
            -2.1237792917298653E-05,
            -2.1237792917298653E-05,
            -1.9886510632463907E-05
          ],
          "Bias": 1.7102376000195296,
          "BiasDelta": -2.1237792917298653E-05,
          "Type": 6
        },
        {
          "Weight": [
            -0.13799382621312517,
            0.8506690224262416,
            -0.4547826861209527,
            1.271831903198461,
            0.7504818427356027
          ],
          "WeightDelta": [
            -1.0360394315317295E-05,
            -1.0279658293433806E-05,
            -1.0360394315317295E-05,
            -1.0360394315317295E-05,
            -9.70120070905571E-06
          ],
          "Bias": 1.3519995933677735,
          "BiasDelta": -1.0360394315317295E-05,
          "Type": 6
        },
        {
          "Weight": [
            1.3239614852756907,
            -2.783593337802633,
            1.0254276230935637,
            0.8365940927293266,
            -1.7365006442020343
          ],
          "WeightDelta": [
            -1.4670716023295297E-05,
            -1.455639071734125E-05,
            -1.4670716023295297E-05,
            -1.4670716023295297E-05,
            -1.3737272574377737E-05
          ],
          "Bias": 1.3331910849471118,
          "BiasDelta": -1.4670716023295297E-05,
          "Type": 6
        },
        {
          "Weight": [
            0.7551276153577072,
            0.9689598332435487,
            1.4614395626402263,
            -0.40722879140755147,
            -0.011937215909114987
          ],
          "WeightDelta": [
            7.893941473684071E-06,
            7.832425916247799E-06,
            7.893941473684071E-06,
            7.893941473684071E-06,
            7.391679147629319E-06
          ],
          "Bias": 1.6631435446778142,
          "BiasDelta": 7.893941473684071E-06,
          "Type": 6
        },
        {
          "Weight": [
            1.530349902351263,
            -0.111187725629718,
            1.7502946159120483,
            0.25480861121512194,
            0.5677503055091796
          ],
          "WeightDelta": [
            1.2641776039544842E-05,
            1.2543261767219715E-05,
            1.2641776039544842E-05,
            1.2641776039544842E-05,
            1.183742654439692E-05
          ],
          "Bias": 1.9876127559547072,
          "BiasDelta": 1.2641776039544842E-05,
          "Type": 6
        }
      ]
    },
    {
      "NeuronList": [
        {
          "Weight": [
            -0.8544210839293688,
            0.1560627265956056,
            -0.08062834456843601,
            -0.33073432933959807,
            -0.23813903491600175
          ],
          "WeightDelta": [
            7.265561440660912E-08,
            8.532334291152513E-07,
            1.1160257276351914E-07,
            8.543199321633459E-07,
            8.545543625506031E-07
          ],
          "Bias": 0.9366155057704468,
          "BiasDelta": 8.545661013117064E-07,
          "Type": 6
        },
        {
          "Weight": [
            -0.5565137187552595,
            0.3530997944119011,
            -0.2410137395244,
            0.2698655166664572,
            -0.338534111074187
          ],
          "WeightDelta": [
            1.613543445055776E-07,
            1.8948696778567762E-06,
            2.478481548943532E-07,
            1.897282595131792E-06,
            1.8978032205752214E-06
          ],
          "Bias": 1.0249266453920884,
          "BiasDelta": 1.8978292901380297E-06,
          "Type": 6
        },
        {
          "Weight": [
            -1.862665145797157,
            -1.0560448502484436,
            -1.2148918404418938,
            0.8209512122946139,
            1.2327264085864267
          ],
          "WeightDelta": [
            1.1030409070014693E-06,
            1.2953594615114133E-05,
            1.6943247137907576E-06,
            1.2970089655689016E-05,
            1.2973648724167078E-05
          ],
          "Bias": 1.7738475532657225,
          "BiasDelta": 1.297382693935114E-05,
          "Type": 6
        },
        {
          "Weight": [
            -0.9288419153957855,
            -0.4307903882002982,
            -0.3863717725988836,
            -0.19126726667188584,
            0.011311904575582702
          ],
          "WeightDelta": [
            8.266949038226356E-07,
            9.708316877938712E-06,
            1.2698437541353116E-06,
            9.720679398580555E-06,
            9.723346809874636E-06
          ],
          "Bias": 1.4634590091366215,
          "BiasDelta": 9.72348037662045E-06,
          "Type": 6
        },
        {
          "Weight": [
            -0.9517742481863434,
            1.3503777719619494,
            -1.351141513277295,
            -0.11657402635816211,
            -0.37221732018060827
          ],
          "WeightDelta": [
            3.722457378984432E-07,
            4.371479203838845E-06,
            5.717876366336512E-07,
            4.377045822911164E-06,
            4.378246909891201E-06
          ],
          "Bias": 1.2323240962870035,
          "BiasDelta": 4.378307052577002E-06,
          "Type": 6
        }
      ]
    },
    {
      "NeuronList": [
        {
          "Weight": [
            0.594461933607127,
            0.11311718200060003,
            1.1784446162367048,
            1.1470018798405117,
            1.095226347282965
          ],
          "WeightDelta": [
            1.7210838618355596E-06,
            3.502317424560212E-06,
            4.096007020145423E-06,
            2.574541065741665E-06,
            3.949995727914693E-06
          ],
          "Bias": 0.8592067676117007,
          "BiasDelta": 4.156753476698844E-06,
          "Type": 6
        },
        {
          "Weight": [
            -0.908929860750966,
            0.19021640967321585,
            -0.6564007000339076,
            -0.47080249766995075,
            -0.7384397094880467
          ],
          "WeightDelta": [
            -2.6643311618847453E-07,
            -5.421777322992096E-07,
            -6.3408410159823E-07,
            -3.985529201169665E-07,
            -6.114807616620517E-07
          ],
          "Bias": 0.9871826371823657,
          "BiasDelta": -6.434879825338598E-07,
          "Type": 6
        },
        {
          "Weight": [
            0.9615789594497778,
            0.36922355801076245,
            0.9177266092859173,
            0.22555109073262405,
            1.463540639732243
          ],
          "WeightDelta": [
            -1.1003872886688172E-07,
            -2.239231719225537E-07,
            -2.618811412512624E-07,
            -1.646051262067249E-07,
            -2.52545804749911E-07
          ],
          "Bias": 0.5449176324086044,
          "BiasDelta": -2.6576500944068147E-07,
          "Type": 6
        },
        {
          "Weight": [
            -0.30992592056283413,
            0.28600666439031813,
            1.5251472881539523,
            1.2476712844314928,
            -0.007967653963322364
          ],
          "WeightDelta": [
            2.417940956479385E-06,
            4.920385886602802E-06,
            5.754457032369155E-06,
            3.616958141920937E-06,
            5.549326596007598E-06
          ],
          "Bias": 1.2350714794121949,
          "BiasDelta": 5.839799384661542E-06,
          "Type": 6
        },
        {
          "Weight": [
            -0.5386008458064028,
            -0.5804550516159411,
            -0.1635263647727041,
            0.008930304912921282,
            -0.48907107813061035
          ],
          "WeightDelta": [
            -1.7539926616777918E-07,
            -3.5692851451138695E-07,
            -4.1743266640438807E-07,
            -2.6237687986237447E-07,
            -4.0255234936849095E-07
          ],
          "Bias": 0.7220186290225029,
          "BiasDelta": -4.23623465201606E-07,
          "Type": 6
        }
      ]
    },
    {
      "NeuronList": [
        {
          "Weight": [
            1.1054413164963108,
            -0.9004290337495962,
            -0.0706893231913966,
            1.55348829231712,
            -0.4341756016938266
          ],
          "WeightDelta": [
            4.052003009745265E-06,
            -2.841428964870856E-06,
            4.049107913969952E-06,
            4.0483105908849025E-06,
            -2.2071360806899202E-06
          ],
          "Bias": 0.41447529713345765,
          "BiasDelta": 4.054172193690106E-06,
          "Type": 6
        }
      ]
    }
  ]
}